0.955237507820129 0.696360051631927 0.960165500640869 0.985891580581665 0.272570043802261 0.715547382831573 0.75896942615509 0.562085688114166 0.54054981470108 0.775054693222046 14 11
0.562728464603424 0.209144026041031 0.928257584571838 0.842069149017334 0.982627630233765 0.464809954166412 0.980252146720886 0.702007591724396 0.595309555530548 0.227690845727921 12 9
0.400412142276764 0.0633996799588203 0.184868231415749 0.902037262916565 0.973703265190125 0.543037354946136 0.878168821334839 0.441375076770782 0.0449487008154392 0.136423602700233 10 7
0.725820124149323 0.535841405391693 0.37372425198555 0.00552237080410123 0.0177018661051989 0.0207446832209826 0.690794885158539 0.596583068370819 0.326670438051224 0.26811209321022 8 5
0.00445544766262174 0.228997975587845 0.828677654266357 0.906726956367493 0.995200276374817 0.509438335895538 0.000160098090418614 0.914682507514954 0.475222170352936 0.712110579013824 6 3
0.601044833660126 0.883991837501526 0.834777235984802 0.425808131694794 0.421939074993134 0.522199332714081 0.120432630181313 0.00292944931425154 0.314216285943985 0.573857605457306 4 1
0.0774668529629707 0.34473791718483 0.640887200832367 0.49875682592392
0.946191072463989 0.499836146831512 0.311079174280167 0.555415332317352
0.185939326882362 0.853940725326538 0.239859610795975 0.711585700511932
|0.745112240314484 0.85063624382019 0.2348293364048 0.0976715236902237 0.205172568559647 0.756842613220215 0.91040027141571 0.914320111274719 0.996559858322144 0.688524901866913 14 11
0.0864991024136543 0.255401402711868 0.786065220832825 0.0842046812176704 0.323420077562332 0.914236068725586 0.783999085426331 0.0343617238104343 0.927437663078308 0.527728378772736 12 9
0.087914951145649 0.11510743200779 0.0615832880139351 0.320659667253494 0.185269489884377 0.917577743530273 0.567713558673859 0.888832688331604 0.719386756420136 0.199152261018753 10 7
0.920961141586304 0.721494972705841 0.431788504123688 0.655021846294403 0.403901636600494 0.210535198450089 0.941261172294617 0.635129868984222 0.438765823841095 0.0492484644055367 8 5
0.894138813018799 0.283203274011612 0.0492999628186226 0.990876913070679 0.888932585716248 0.688647925853729 0.825439453125 0.310703545808792 0.178780093789101 0.283261090517044 6 3
0.908520102500916 0.180282011628151 0.901205062866211 0.836043238639832 0.94907808303833 0.435037195682526 0.133789911866188 0.132568374276161 0.794338583946228 0.587445914745331 4 1
0.103364363312721 0.914867758750916 0.270773202180862 0.255117684602737
0.629384815692902 0.454867899417877 0.952324151992798 0.143329039216042
0.851679921150208 0.661478102207184 0.894875407218933 0.986612796783447
|-5918980951.55425 -5918980952.51237 -5918980952.35235 -5918980952.25992 -5918980952.32165 -5918980951.8205 -5918980952.16155 -5918980951.6883 -5918980951.61925 -5918980952.23514 14 11
-5918980952.08113 -5918980952.02812 -5918980951.60401 -5918980952.08045 -5918980951.75157 -5918980952.34896 -5918980952.21159 -5918980952.4769 -5918980952.37678 -5918980952.3761 12 9
-5918980952.25468 -5918980952.37181 -5918980952.3856 -5918980952.41508 -5918980952.00562 -5918980952.50554 -5918980951.92941 -5918980951.56802 -5918980951.72182 -5918980952.49249 10 7
-5918980952.02071 -5918980952.10726 -5918980951.84986 -5918980952.07011 -5918980951.74128 -5918980951.81573 -5918980952.30798 -5918980952.53789 -5918980952.26616 -5918980952.27243 8 5
-5918980952.07227 -5918980952.19511 -5918980952.46268 -5918980951.68593 -5918980951.56932 -5918980951.90019 -5918980951.8079 -5918980952.10042 -5918980951.95591 -5918980952.09142 6 3
-5918980951.92775 -5918980952.09887 -5918980951.91096 -5918980951.74772 -5918980952.09315 -5918980952.29286 -5918980952.04699 -5918980951.72069 -5918980952.45911 -5918980951.65886 4 1
-1110731669.07951 -1110731669.16531 -1110731669.00847 -1110731669.16802
-1968003744.8112 -1968003744.0626 -1968003744.08943 -1968003745.00374
-2840245537.33055 -2840245537.69181 -2840245537.8961 -2840245537.16769
