-0.369009506086131 -0.740935962775966 -0.975285228470585 -0.940725978592654 -0.1928584092653 -0.875500362495205 -0.721670638898632 -0.749125044921657 -0.986616905907413 -1.03036696104171 14 11
-1.02527004865767 -0.424101363996289 -0.549804102758191 -0.559709441045544 -0.744762223342678 -0.883000057319424 -0.612281333783886 -0.998084362725041 -0.586421381810924 -0.949068244675418 12 9
-0.13988001284959 -0.693933498243115 -0.409344207624218 -0.238144111017009 -0.41539682088258 -0.62140644727113 -0.102593731263896 -0.175015758851787 -0.907014053443691 -0.862056534866116 10 7
-0.172930311540386 -0.436483394483349 -0.193873476365825 -1.10131270812197 -0.316549372056743 -0.446797978261731 -0.7769828253782 -0.318469952920696 -0.650165926793835 -0.177336048463604 8 5
-0.276609849313518 -0.485442649701855 -0.685920249799511 -0.398985516408703 -0.638238322118542 -0.406773101667187 -0.411131631711743 -0.873029153922817 -0.279333066324016 -0.7116350048578 6 3
-0.123830031732341 -0.565903555730602 -0.140715193132182 -1.07622737450363 -0.53895856080415 -0.937426503876469 -0.63746119675996 -0.565014969686291 -0.17541296420457 -0.181921076158307 4 1
0.0725020077398472 -0.327532956344779 -0.610053652865586 -0.458548286897834
0.289661421018457 0.522977008062219 0.0980517701681611 0.102144582706308
0.391144796536028 0.669586762116017 0.582546397373737 -0.072025307192743
|