-0.568523272996696 -0.940449729686532 -1.17479899538115 -1.14023974550322 -0.392372176175865 -1.07501412940577 -0.921184405809198 -0.948638811832223 -1.18613067281798 -1.22988072795227 14 11
-1.22478381556823 -0.623615130906854 -0.749317869668757 -0.75922320795611 -0.944275990253244 -1.08251382422999 -0.811795100694452 -1.1975981296356 -0.78593514872149 -1.14858201158598 12 9
-0.339393779760155 -0.893447265153681 -0.608857974534783 -0.437657877927574 -0.614910587793145 -0.820920214181696 -0.302107498174461 -0.374529525762352 -1.10652782035425 -1.06157030177668 10 7
-0.372444078450951 -0.635997161393914 -0.39338724327639 -1.30082647503253 -0.516063138967308 -0.646311745172296 -0.976496592288766 -0.517983719831261 -0.849679693704401 -0.376849815374169 8 5
-0.476123616224083 -0.684956416612421 -0.885434016710077 -0.598499283319268 -0.837752089029108 -0.606286868577752 -0.610645398622308 -1.07254292083338 -0.478846833234581 -0.911148771768366 6 3
-0.323343798642906 -0.765417322641168 -0.340228960042747 -1.27574114141419 -0.738472327714716 -1.13694027078703 -0.836974963670526 -0.764528736596857 -0.374926731115135 -0.381434843068872 4 1
-0.127011759170718 -0.527046723255344 -0.809567419776152 -0.658062053808399
0.289661421018457 0.522977008062219 0.0980517701681611 0.102144582706308
0.391144796536028 0.669586762116017 0.582546397373737 -0.072025307192743
|-3.94998135437073 -4.32190781106057 -4.55625707675518 -4.52169782687725 -3.7738302575499 -4.4564722107798 -4.30264248718323 -4.33009689320626 -4.56758875419201 -4.6113388093263 14 11
-4.60624189694226 -4.00507321228089 -4.13077595104279 -4.14068128933014 -4.32573407162728 -4.46397190560402 -4.19325318206849 -4.57905621100963 -4.16739323009552 -4.53004009296001 12 9
-3.72085186113419 -4.27490534652772 -3.99031605590882 -3.81911595930161 -3.99636866916718 -4.20237829555573 -3.6835655795485 -3.75598760713639 -4.48798590172828 -4.44302838315071 10 7
-3.75390215982499 -4.01745524276795 -3.77484532465043 -4.68228455640656 -3.89752122034135 -4.02776982654633 -4.3579546736628 -3.8994418012053 -4.23113777507844 -3.75830789674821 8 5
-3.85758169759812 -4.06641449798646 -4.26689209808411 -3.97995736469331 -4.21921017040314 -3.98774494995179 -3.99210347999635 -4.45400100220741 -3.86030491460862 -4.2926068531424 6 3
-3.70480188001694 -4.1468754040152 -3.72168704141678 -4.65719922278822 -4.11993040908875 -4.51839835216106 -4.21843304504456 -4.14598681797089 -3.75638481248917 -3.76289292444291 4 1
-3.04180316692422 -3.44183813100884 -3.72435882752965 -3.57285346156189
0.0896614180382248 0.322977005081987 -0.101948232812071 -0.0978554202739242
0.124478125895718 0.402920091475707 0.315879726733427 -0.338691977833053
|-5.47380052749754 -5.84572698418737 -6.08007624988199 -6.04551700000406 -5.29764943067671 -5.98029138390661 -5.82646166031004 -5.85391606633306 -6.09140792731882 -6.13515798245311 14 11
-6.13006107006907 -5.5288923854077 -5.6545951241696 -5.66450046245695 -5.84955324475408 -5.98779107873083 -5.71707235519529 -6.10287538413644 -5.69121240322233 -6.05385926608682 12 9
-5.244671034261 -5.79872451965452 -5.51413522903562 -5.34293513242842 -5.52018784229399 -5.72619746868254 -5.2073847526753 -5.27980678026319 -6.01180507485509 -5.96684755627752 10 7
-5.27772133295179 -5.54127441589476 -5.29866449777723 -6.20610372953337 -5.42134039346815 -5.55158899967314 -5.88177384678961 -5.4232609743321 -5.75495694820524 -5.28212706987501 8 5
-5.38140087072493 -5.59023367111326 -5.79071127121092 -5.50377653782011 -5.74302934352995 -5.51156412307859 -5.51592265312315 -5.97782017533422 -5.38412408773542 -5.81642602626921 6 3
-5.22862105314375 -5.67069457714201 -5.24550621454359 -6.18101839591503 -5.64374958221556 -6.04221752528787 -5.74225221817137 -5.6698059910977 -5.28020398561598 -5.28671209756971 4 1
-5.05079910354382 -5.45083406762844 -5.73335476414925 -5.58184939818149
0.122994751868263 0.356310338912025 -0.0686148989820324 -0.0645220864438855
0.0896614180382248 0.322977005081987 -0.101948232812071 -0.0978554202739242
